<?xml version="1.0"?>
<opencv_storage>
<cascade>
  <stageType>BOOST</stageType>
  <featureType>HAAR</featureType>
  <height>24</height>
  <width>24</width>
  <stageParams>
    <boostType>GAB</boostType>
    <minHitRate>9.9500000476837158e-01</minHitRate>
    <maxFalseAlarm>5.0000000000000000e-01</maxFalseAlarm>
    <weightTrimRate>9.4999999999999996e-01</weightTrimRate>
    <maxDepth>1</maxDepth>
    <maxWeakCount>100</maxWeakCount></stageParams>
  <featureParams>
    <maxCatCount>0</maxCatCount>
    <featSize>1</featSize>
    <mode>BASIC</mode></featureParams>
  <stageNum>27</stageNum>
  <stages>
    <!-- stage 0 -->
    <_>
      <maxWeakCount>27</maxWeakCount>
      <stageThreshold>-1.6558339595794678e+00</stageThreshold>
      <weakClassifiers>
        <_>
          <internalNodes>
            0 -1 554 8.2076214253902435e-02</internalNodes>
          <leafValues>
            -5.7287156581878662e-01 2.5170066952705383e-01</leafValues></_>
        <_>
          <internalNodes>
            0 -1 207 -7.4283862486481667e-03</internalNodes>
          <leafValues>
            4.7675475478172302e-01 -2.8377914428710938e-01</leafValues></_>
        <_>
          <internalNodes>
            0 -1 1978 3.3033210784196854e-03</internalNodes>
          <leafValues>
            -1.7649495601654053e-01 4.6157088875770569e-01</leafValues></_>
        <_>
          <internalNodes>
            0 -1 1158 -4.2199905961751938e-02</internalNodes>
          <leafValues>
            3.6206698417663574e-01 -2.5258591771125793e-01</leafValues></_>
        <_>
          <internalNodes>
            0 -1 833 1.0318466462194920e-02</internalNodes>
          <leafValues>
            -1.1193995177745819e-01 5.6183648109436035e-01</leafValues></_>
        <_>
          <internalNodes>
            0 -1 1028 -5.2385693415999413e-03</internalNodes>
          <leafValues>
            4.8808598518371582e-01 -1.4809831976890564e-01</leafValues></_>
        <_>
          <internalNodes>
            0 -1 984 -2.0530575420707464e-03</internalNodes>
          <leafValues>
            2.9716122150421143e-01 -1.6027054190635681e-01</leafValues></_>
        <_>
          <internalNodes>
            0 -1 1362 -5.8209067210555077e-03</internalNodes>
          <leafValues>
            3.0072617530822754e-01 -1.7135289311408997e-01</leafValues></_>
        <_>
          <internalNodes>
            0 -1 1103 5.2198870107531548e-03</internalNodes>
          <leafValues>
            -8.2713074982166290e-02 3.7112718820571899e-01</leafValues></_>
        <_>
          <internalNodes>
            0 -1 1953 -2.7390490286052227e-03</internalNodes>
          <leafValues>
            3.4816473722457886e-01 -1.2415479123592377e-01</leafValues></_>
        <_>
          <internalNodes>
            0 -1 1013 -1.0883420705795288e-02</internalNodes>
          <leafValues>
            3.5814008116722107e-01 -1.1193649470806122e-01</leafValues></_>
        <_>
          <internalNodes>
            0 -1 1107 -2.5228634476661682e-03</internalNodes>
          <leafValues>
            2.8835320472717285e-01 -1.3344652950763702e-01</leafValues></_>
        <_>
          <internalNodes>
            0 -1 1061 -2.3991873487830162e-02</internalNodes>
          <leafValues>
            3.8031008839607239e-01 -1.0462627559900284e-01</leafValues></_>
        <_>
          <internalNodes>
            0 -1 1709 3.9371722959913313e-04</internalNodes>
          <leafValues>
            1.0259997099637985e-01 -3.6143535375595093e-01</leafValues></_>
        <_>
          <internalNodes>
            0 -1 1584 7.4504101648926735e-03</internalNodes>
          <leafValues>
            -9.3317806720733643e-02 3.6357477307319641e-01</leafValues></_>
        <_>
          <internalNodes>
            0 -1 1470 -1.6632579499855638e-03</internalNodes>
          <leafValues>
            2.7321645617485046e-01 -1.1903870105743408e-01</leafValues></_>
        <_>
          <internalNodes>
            0 -1 469 -2.4791778996586800e-02</internalNodes>
          <leafValues>
            4.7157043218612671e-01 -6.9249466061592102e-02</leafValues></_>
        <_>
          <internalNodes>
            0 -1 1351 2.5579733774065971e-03</internalNodes>
          <leafValues>
            -1.3816031813621521e-01 2.3086471855640411e-01</leafValues></_>
        <_>
          <internalNodes>
            0 -1 1513 2.7495287358760834e-02</internalNodes>
          <leafValues>
            -9.8371349275112152e-02 3.4251195192337036e-01</leafValues></_>
        <_>
          <internalNodes>
            0 -1 115 -2.6979001704603434e-03</internalNodes>
          <leafValues>
            2.7476817369461060e-01 -1.1439861357212067e-01</leafValues></_>
        <_>
          <internalNodes>
            0 -1 545 8.2921691238880157e-02</internalNodes>
          <leafValues>
            -8.6356878280639648e-02 3.9083576202392578e-01</leafValues></_>
        <_>
          <internalNodes>
            0 -1 1855 3.8865702226758003e-03</internalNodes>
          <leafValues>
            -1.4198713004589081e-01 2.3032201826572418e-01</leafValues></_>
        <_>
          <internalNodes>
            0 -1 464 -2.0595766603946686e-02</internalNodes>
          <leafValues>
            2.7671220898628235e-01 -1.1425349116325378e-01</leafValues></_>
        <_>
          <internalNodes>
            0 -1 1872 1.8661939539015293e-03</internalNodes>
          <leafValues>
            7.2280347347259521e-02 -4.4740071892738342e-01</leafValues></_>
        <_>
          <internalNodes>
            0 -1 1264 -1.8210377544164658e-02</internalNodes>
          <leafValues>
            3.9550602436065674e-01 -8.0288752913475037e-02</leafValues></_>
        <_>
          <internalNodes>
            0 -1 663 5.2675336599349976e-02</internalNodes>
          <leafValues>
            -5.8811657130718231e-02 4.6152967214584351e-01</leafValues></_>
        <_>
          <internalNodes>
            0 -1 1537 1.0883994400501251e-02</internalNodes>
          <leafValues>
            -1.2232884019613266e-01 2.3987177014350891e-01</leafValues></_></weakClassifiers></_>
    <!-- stage 1 -->
    <_>
      <maxWeakCount>40</maxWeakCount>
      <stageThreshold>-1.6185557842254639e+00</stageThreshold>
      <weakClassifiers>
        <_>
          <internalNodes>
            0 -1 1975 7.1741594001650810e-03</internalNodes>
          <leafValues>
            -5.3960114717483521e-01 1.3623188436031342e-01</leafValues></_>
        <_>
          <internalNodes>
            0 -1 430 7.9687297344207764e-02</internalNodes>
          <leafValues>
            -2.6801699399948120e-01 3.2270929217338562e-01</leafValues></_>
        <_>
          <internalNodes>
            0 -1 372 -2.5730609195306897e-05</internalNodes>
          <leafValues>
            2.3209403455257416e-01 -2.7606993913650513e-01</leafValues></_>
        <_>
          <internalNodes>
            0 -1 524 1.0843781754374504e-02</internalNodes>
          <leafValues>
            -1.2681424617767334e-01 4.0349763631820679e-01</leafValues></_>
        <_>
          <internalNodes>
            0 -1 1124 -3.2051794696599245e-03</internalNodes>
          <leafValues>
            2.6625856757164001e-01 -1.8633864820003510e-01</leafValues></_>
        <_>
          <internalNodes>
            0 -1 1740 1.4239259064197540e-02</internalNodes>
          <leafValues>
            -1.4449623227119446e-01 3.4681302309036255e-01</leafValues></_>
        <_>
          <internalNodes>
            0 -1 154 -2.7550833765417337e-03</internalNodes>
          <leafValues>
            3.8508522510528564e-01 -1.0401284694671631e-01</leafValues></_>
        <_>
          <internalNodes>
            0 -1 1110 -1.2518491595983505e-02</internalNodes>
          <leafValues>
            5.5176550149917603e-01 -6.9639131426811218e-02</leafValues></_>
        <_>
          <internalNodes>
            0 -1 802 -1.5322244726121426e-02</internalNodes>
          <leafValues>
            3.0796712636947632e-01 -1.5065571665763855e-01</leafValues></_>
        <_>
          <internalNodes>
            0 -1 1227 -1.9477993249893188e-02</internalNodes>
          <leafValues>
            3.6696630716323853e-01 -1.0820698738098145e-01</leafValues></_>
        <_>
          <internalNodes>
            0 -1 1342 2.1405261941254139e-03</internalNodes>
          <leafValues>
            -1.6103382408618927e-01 2.7365681529045105e-01</leafValues></_>
        <_>
          <internalNodes>
            0 -1 513 -3.0249650080804713e-05</internalNodes>
          <leafValues>
            1.8060047924518585e-01 -1.9391654431819916e-01</leafValues></_>
        <_>
          <internalNodes>
            0 -1 1954 1.7786519601941109e-03</internalNodes>
          <leafValues>
            -1.0945093631744385e-01 3.1059730052947998e-01</leafValues></_>
        <_>
          <internalNodes>
            0 -1 141 4.9044843763113022e-03</internalNodes>
          <leafValues>
            -6.7970924079418182e-02 4.8647257685661316e-01</leafValues></_>
        <_>
          <internalNodes>
            0 -1 171 -1.0898372158408165e-02</internalNodes>
          <leafValues>
            2.3467046022415161e-01 -1.2886621057987213e-01</leafValues></_>
        <_>
          <internalNodes>
            0 -1 1242 -8.4651805460453033e-02</internalNodes>
          <leafValues>
            2.4573358893394470e-01 -1.3592596352100372e-01</leafValues></_>
        <_>
          <internalNodes>
            0 -1 51 -7.0771849155426025e-01</internalNodes>
          <leafValues>
            -7.5930184125900269e-01 3.5129584372043610e-02</leafValues></_>
        <_>
          <internalNodes>
            0 -1 880 -9.2299748212099075e-03</internalNodes>
          <leafValues>
            2.2136060893535614e-01 -1.3134160637855530e-01</leafValues></_>
        <_>
          <internalNodes>
            0 -1 264 -4.8199944198131561e-02</internalNodes>
          <leafValues>
            2.2800379991531372e-01 -1.4807826280593872e-01</leafValues></_>
        <_>
          <internalNodes>
            0 -1 370 1.8789138644933701e-02</internalNodes>
          <leafValues>
            -4.8151209950447083e-02 4.9785667657852173e-01</leafValues></_>
        <_>
          <internalNodes>
            0 -1 1998 -5.4432475008070469e-04</internalNodes>
          <leafValues>
            -3.3013281226158142e-01 8.0177918076515198e-02</leafValues></_>
        <_>
          <internalNodes>
            0 -1 71 1.9398342072963715e-01</internalNodes>
          <leafValues>
            -6.0048997402191162e-02 4.8370382189750671e-01</leafValues></_>
        <_>
          <internalNodes>
            0 -1 899 -1.1144472286105156e-02</internalNodes>
          <leafValues>
            3.2010883092880249e-01 -8.1035219132900238e-02</leafValues></_>
        <_>
          <internalNodes>
            0 -1 918 -2.4653087166370824e-05</internalNodes>
          <leafValues>
            1.6975733637809753e-01 -1.7175778746604919e-01</leafValues></_>
        <_>
          <internalNodes>
            0 -1 1821 7.7568236738443375e-03</internalNodes>
          <leafValues>
            -1.0512440651655197e-01 2.5948727130889893e-01</leafValues></_>
        <_>
          <internalNodes>
            0 -1 1946 -2.3967861197888851e-03</internalNodes>
          <leafValues>
            2.7412697672843933e-01 -8.9543491601943970e-02</leafValues></_>
        <_>
          <internalNodes>
            0 -1 443 7.2426190599799156e-03</internalNodes>
          <leafValues>
            -9.2058867216110229e-02 2.6161724328994751e-01</leafValues></_>
        <_>
          <internalNodes>
            0 -1 1999 7.0073327515274286e-04</internalNodes>
          <leafValues>
            7.1178480982780457e-02 -3.5708299279212952e-01</leafValues></_>
        <_>
          <internalNodes>
            0 -1 327 -1.1742191389203072e-02</internalNodes>
          <leafValues>
            3.3106654882431030e-01 -7.5689673423767090e-02</leafValues></_>
        <_>
          <internalNodes>
            0 -1 1788 -3.5125100112054497e-05</internalNodes>
          <leafValues>
            1.6126538813114166e-01 -1.5288724005222321e-01</leafValues></_>
        <_>
          <internalNodes>
            0 -1 637 -1.3025116175413132e-02</internalNodes>
          <leafValues>
            3.2491186261177063e-01 -7.4719466269016266e-02</leafValues></_>
        <_>
          <internalNodes>
            0 -1 22 -1.3043986633419991e-02</internalNodes>
          <leafValues>
            -3.3334305882453918e-01 7.7395528554916382e-02</leafValues></_>
        <_>
          <internalNodes>
            0 -1 1773 -3.2827783375978470e-02</internalNodes>
          <leafValues>
            -6.9807833433151245e-01 3.3907409757375717e-02</leafValues></_>
        <_>
          <internalNodes>
            0 -1 289 3.4338045865297318e-02</internalNodes>
          <leafValues>
            -7.4839413166046143e-02 3.4221506118774414e-01</leafValues></_>
        <_>
          <internalNodes>
            0 -1 700 1.5054332092404366e-02</internalNodes>
          <leafValues>
            -8.4816098213195801e-02 2.9001381993293762e-01</leafValues></_>
        <_>
          <internalNodes>
            0 -1 1044 -6.5714970231056213e-02</internalNodes>
          <leafValues>
            1.7643800377845764e-01 -1.4607377350330353e-01</leafValues></_>
        <_>
          <internalNodes>
            0 -1 404 -5.9017003513872623e-03</internalNodes>
          <leafValues>
            2.8736293315887451e-01 -1.0875848680734634e-01</leafValues></_>
        <_>
          <internalNodes>
            0 -1 1658 -5.0049442797899246e-03</internalNodes>
          <leafValues>
            -5.1369136571884155e-01 4.8570528626441956e-02</leafValues></_>
        <_>
          <internalNodes>
            0 -1 1421 2.6742790360003710e-03</internalNodes>
          <leafValues>
            5.1689047366380692e-02 -4.1138210892677307e-01</leafValues></_>
        <_>
          <internalNodes>
            0 -1 1889 -2.4664581287652254e-03</internalNodes>
          <leafValues>
            3.4075200557708740e-01 -7.0091687142848969e-02</leafValues></_></weakClassifiers></_>
    <!-- stage 2 -->
    <_>
      <maxWeakCount>53</maxWeakCount>
      <stageThreshold>-1.4280718564987183e+00</stageThreshold>
      <weakClassifiers>
        <_>
          <internalNodes>
            0 -1 1865 5.3717899136245251e-03</internalNodes>
          <leafValues>
            -5.9150439500808716e-01 -9.3818180263042450e-02</leafValues></_>
        <_>
          <internalNodes>
            0 -1 766 -1.0551955550909042e-01</internalNodes>
          <leafValues>
            2.5090852379798889e-01 -3.0265361070632935e-01</leafValues></_>
        <_>
          <internalNodes>
            0 -1 213 -5.5101532489061356e-03</internalNodes>
          <leafValues>
            2.8209310770034790e-01 -1.7432898283004761e-01</leafValues></_>
        <_>
          <internalNodes>
            0 -1 834 1.2504488229751587e-02</internalNodes>
          <leafValues>
            -9.6290573477745056e-02 3.6552536487579346e-01</leafValues></_>
        <_>
          <internalNodes>
            0 -1 1909 -3.7805212195962667e-03</internalNodes>
          <leafValues>
            2.8461843729019165e-01 -1.1257325112819672e-01</leafValues></_>
        <_>
          <internalNodes>
            0 -1 1767 -4.1249557398259640e-04</internalNodes>
          <leafValues>
            -3.8126331567764282e-01 7.5013183057308197e-02</leafValues></_>
        <_>
          <internalNodes>
            0 -1 1263 2.2164355963468552e-02</internalNodes>
          <leafValues>
            -8.5286140441894531e-02 3.2537022233009338e-01</leafValues></_>
        <_>
          <internalNodes>
            0 -1 298 1.0947483824566007e-03</internalNodes>
          <leafValues>
            -1.1196806281805038e-01 2.4656243622303009e-01</leafValues></_>
        <_>
          <internalNodes>
            0 -1 1768 2.8071930864825845e-04</internalNodes>
          <leafValues>
            1.4422793686389923e-01 -2.8645160794258118e-01</leafValues></_>
        <_>
          <internalNodes>
            0 -1 334 2.6298672892153263e-03</internalNodes>
          <leafValues>
            -1.1648143827915192e-01 3.0813854932785034e-01</leafValues></_>
        <_>
          <internalNodes>
            0 -1 1911 1.6110669821500778e-03</internalNodes>
          <leafValues>
            -5.7419802993535995e-02 3.5988247394561768e-01</leafValues></_>
        <_>
          <internalNodes>
            0 -1 519 9.8677977919578552e-02</internalNodes>
          <leafValues>
            5.9878785163164139e-02 -4.0875786542892456e-01</leafValues></_>
        <_>
          <internalNodes>
            0 -1 1207 -8.5990680381655693e-03</internalNodes>
          <leafValues>
            3.6756968498229980e-01 -6.4015321433544159e-02</leafValues></_>
        <_>
          <internalNodes>
            0 -1 1576 -8.8312448933720589e-03</internalNodes>
          <leafValues>
            1.9315448403358459e-01 -1.1440181732177734e-01</leafValues></_>
        <_>
          <internalNodes>
            0 -1 1075 -1.3103183358907700e-02</internalNodes>
          <leafValues>
            2.0855519175529480e-01 -1.2639287114143372e-01</leafValues></_>
        <_>
          <internalNodes>
            0 -1 1420 -6.1061809537932277e-04</internalNodes>
          <leafValues>
            -3.3996835350990295e-01 6.9526754319667816e-02</leafValues></_>
        <_>
          <internalNodes>
            0 -1 332 -2.3451605811715126e-03</internalNodes>
          <leafValues>
            2.8445544838905334e-01 -8.6329624056816101e-02</leafValues></_>
        <_>
          <internalNodes>
            0 -1 948 -3.4986659884452820e-03</internalNodes>
          <leafValues>
            1.6094683110713959e-01 -1.3169056177139282e-01</leafValues></_>
        <_>
          <internalNodes>
            0 -1 1500 -1.1944850906729698e-02</internalNodes>
          <leafValues>
            1.6253533959388733e-01 -1.4693143963813782e-01</leafValues></_>
        <_>
          <internalNodes>
            0 -1 294 -1.3103443197906017e-03</internalNodes>
          <leafValues>
            2.2634281218051910e-01 -9.9075987935066223e-02</leafValues></_>
        <_>
          <internalNodes>
            0 -1 1420 4.4521957170218229e-04</internalNodes>
          <leafValues>
            7.9287037253379822e-02 -2.9402139782905579e-01</leafValues></_>
        <_>
          <internalNodes>
            0 -1 101 -3.1470400094985962e-01</internalNodes>
          <leafValues>
            -7.5048995018005371e-01 2.3665230721235275e-02</leafValues></_>
        <_>
          <internalNodes>
            0 -1 163 -1.9411726389080286e-03</internalNodes>
          <leafValues>
            3.7588551640510559e-01 -5.9891551733016968e-02</leafValues></_>
        <_>
          <internalNodes>
            0 -1 1495 -5.5104484781622887e-03</internalNodes>
          <leafValues>
            2.0670039951801300e-01 -9.8273403942584991e-02</leafValues></_>
        <_>
          <internalNodes>
            0 -1 369 6.4493730664253235e-02</internalNodes>
          <leafValues>
            -4.5763052999973297e-02 4.2281579971313477e-01</leafValues></_>
        <_>
          <internalNodes>
            0 -1 250 -2.4831823538988829e-03</internalNodes>
          <leafValues>
            -3.9212757349014282e-01 5.0976097583770752e-02</leafValues></_>
        <_>
          <internalNodes>
            0 -1 923 2.0248852670192719e-03</internalNodes>
          <leafValues>
            -1.0994340479373932e-01 1.7509093880653381e-01</leafValues></_>
        <_>
          <internalNodes>
            0 -1 238 -3.2282108440995216e-04</internalNodes>
          <leafValues>
            -2.6718059182167053e-01 7.6984502375125885e-02</leafValues></_>
        <_>
          <internalNodes>
            0 -1 353 -2.7228439226746559e-02</internalNodes>
          <leafValues>
            2.8222456574440002e-01 -7.5202852487564087e-02</leafValues></_>
        <_>
          <internalNodes>
            0 -1 1252 -6.2431610422208905e-04</internalNodes>
          <leafValues>
            1.4126405119895935e-01 -1.5080724656581879e-01</leafValues></_>
        <_>
          <internalNodes>
            0 -1 966 -4.5274671167135239e-02</internalNodes>
          <leafValues>
            2.6546430587768555e-01 -8.0599814653396606e-02</leafValues></_>
        <_>
          <internalNodes>
            0 -1 517 1.5824696049094200e-02</internalNodes>
          <leafValues>
            -9.5480456948280334e-02 2.2422716021537781e-01</leafValues></_>
        <_>
          <internalNodes>
            0 -1 888 -3.0192583799362183e-02</internalNodes>
          <leafValues>
            2.2421517968177795e-01 -8.8688753545284271e-02</leafValues></_>
        <_>
          <internalNodes>
            0 -1 366 -5.3733675740659237e-03</internalNodes>
          <leafValues>
            -3.5879912972450256e-01 6.0349401086568832e-02</leafValues></_>
        <_>
          <internalNodes>
            0 -1 1881 3.5118475556373596e-02</internalNodes>
          <leafValues>
            4.5630447566509247e-02 -3.8287937641143799e-01</leafValues></_>
        <_>
          <internalNodes>
            0 -1 1723 5.7787345722317696e-03</internalNodes>
          <leafValues>
            -8.3505056798458099e-02 2.5406035780906677e-01</leafValues></_>
        <_>
          <internalNodes>
            0 -1 310 8.4413066506385803e-03</internalNodes>
          <leafValues>
            -9.3243777751922607e-02 2.1436594426631927e-01</leafValues></_>
        <_>
          <internalNodes>
            0 -1 318 -6.9653410464525223e-03</internalNodes>
          <leafValues>
            2.7708089351654053e-01 -7.6218076050281525e-02</leafValues></_>
        <_>
          <internalNodes>
            0 -1 1196 1.5309284208342433e-04</internalNodes>
          <leafValues>
            1.0222403705120087e-01 -2.0513190329074860e-01</leafValues></_>
        <_>
          <internalNodes>
            0 -1 1196 -1.3753870734944940e-04</internalNodes>
          <leafValues>
            -2.0373974740505219e-01 1.0786858201026917e-01</leafValues></_>
        <_>
          <internalNodes>
            0 -1 1949 4.5930962078273296e-03</internalNodes>
          <leafValues>
            -4.7495931386947632e-02 4.4820189476013184e-01</leafValues></_>
        <_>
          <internalNodes>
            0 -1 1945 -2.6391441933810711e-03</internalNodes>
          <leafValues>
            2.5822114944458008e-01 -6.8903982639312744e-02</leafValues></_>
        <_>
          <internalNodes>
            0 -1 185 4.0734591893851757e-03</internalNodes>
          <leafValues>
            3.9152696728706360e-02 -4.6356832981109619e-01</leafValues></_>
        <_>
          <internalNodes>
            0 -1 351 -6.9524510763585567e-03</internalNodes>
          <leafValues>
            2.5224521756172180e-01 -8.8220477104187012e-02</leafValues></_>
        <_>
          <internalNodes>
            0 -1 178 -5.5824480950832367e-03</internalNodes>
          <leafValues>
            3.9812850952148438e-01 -4.9011856317520142e-02</leafValues></_>
        <_>
          <internalNodes>
            0 -1 180 -3.9578936994075775e-02</internalNodes>
          <leafValues>
            -7.1897244453430176e-01 3.2192822545766830e-02</leafValues></_>
        <_>
          <internalNodes>
            0 -1 658 -2.4523980915546417e-02</internalNodes>
          <leafValues>
            2.4457076191902161e-01 -8.2907043397426605e-02</leafValues></_>
        <_>
          <internalNodes>
            0 -1 1600 -3.0936114490032196e-04</internalNodes>
          <leafValues>
            -2.5033101439476013e-01 7.6566182076931000e-02</leafValues></_>
        <_>
          <internalNodes>
            0 -1 1795 -2.1343452390283346e-03</internalNodes>
          <leafValues>
            2.1604622900485992e-01 -9.5789052546024323e-02</leafValues></_>
        <_>
          <internalNodes>
            0 -1 1425 -5.6448716670274734e-02</internalNodes>
          <leafValues>
            -6.3971561193466187e-01 3.2892439514398575e-02</leafValues></_>
        <_>
          <internalNodes>
            0 -1 1498 8.1545568536967039e-04</internalNodes>
          <leafValues>
            6.8197093904018402e-02 -2.5305911898612976e-01</leafValues></_>
        <_>
          <internalNodes>
            0 -1 1435 -1.5396629460155964e-03</internalNodes>
          <leafValues>
            1.6447421908378601e-01 -1.2241374701261520e-01</leafValues></_>
        <_>
          <internalNodes>
            0 -1 1611 -4.7662928700447083e-02</internalNodes>
          <leafValues>
            2.2248524427413940e-01 -8.6591154336929321e-02</leafValues></_></weakClassifiers></_>
    <!-- stage 3 -->
    <_>
      <maxWeakCount>60</maxWeakCount>
      <stageThreshold>-1.4266011714935303e+00</stageThreshold>
      <weakClassifiers>
        <_>
          <internalNodes>
            0 -1 1205 1.0818763636052608e-02</internalNodes>
          <leafValues>
            -4.9202126264572144e-01 1.1363636702299118e-01</leafValues></_>
        <_>
          <internalNodes>
            0 -1 167 -4.7231568023562431e-03</internalNodes>
          <leafValues>
            3.4700152277946472e-01 -1.6394960880279541e-01</leafValues></_>
        <_>
          <internalNodes>
            0 -1 628 2.9619389772415161e-01</internalNodes>
          <leafValues>
            -1.2686619162559509e-01 2.8246188163757324e-01</leafValues></_>
        <_>
          <internalNodes>
            0 -1 1970 5.4501900449395180e-03</internalNodes>
          <leafValues>
            -1.2561455368995667e-01 3.1464466452598572e-01</leafValues></_>
        <_>
          <internalNodes>
            0 -1 1423 -1.4217752031981945e-03</internalNodes>
          <leafValues>
            3.3170959353446960e-01 -8.6332462728023529e-02</leafValues></_>
        <_>
          <internalNodes>
            0 -1 1526 -2.5363489985466003e-03</internalNodes>
          <leafValues>
            2.5315806269645691e-01 -1.1123746633529663e-01</leafValues></_>
        <_>
          <internalNodes>
            0 -1 510 -2.4823446437949315e-05</internalNodes>
          <leafValues>
            1.5899603068828583e-01 -1.7368693649768829e-01</leafValues></_>
        <_>
          <internalNodes>
            0 -1 2023 -4.0980158373713493e-03</internalNodes>
          <leafValues>
            -3.3695802092552185e-01 1.0826165974140167e-01</leafValues></_>
        <_>
          <internalNodes>
            0 -1 1153 -9.9437369499355555e-04</internalNodes>
          <leafValues>
            1.7256769537925720e-01 -1.4976334571838379e-01</leafValues></_>
        <_>
          <internalNodes>
            0 -1 130 7.2416136972606182e-03</internalNodes>
          <leafValues>
            -2.3885110393166542e-02 5.4730921983718872e-01</leafValues></_>
        <_>
          <internalNodes>
            0 -1 1113 -1.6048855613917112e-03</internalNodes>
          <leafValues>
            1.4684857428073883e-01 -1.5730871260166168e-01</leafValues></_>
        <_>
          <internalNodes>
            0 -1 719 -2.5431421818211675e-05</internalNodes>
          <leafValues>
            1.6194342076778412e-01 -1.4941632747650146e-01</leafValues></_>
        <_>
          <internalNodes>
            0 -1 276 -6.2516643665730953e-03</internalNodes>
          <leafValues>
            2.5130534172058105e-01 -1.0199894011020660e-01</leafValues></_>
        <_>
          <internalNodes>
            0 -1 1826 -3.0800472013652325e-03</internalNodes>
          <leafValues>
            2.0416788756847382e-01 -1.2284740805625916e-01</leafValues></_>
        <_>
          <internalNodes>
            0 -1 1271 1.8611999694257975e-03</internalNodes>
          <leafValues>
            -9.8275966942310333e-02 2.4533388018608093e-01</leafValues></_>
        <_>
          <internalNodes>
            0 -1 767 -2.3943567648530006e-02</internalNodes>
          <leafValues>
            2.9849296808242798e-01 -8.2827240228652954e-02</leafValues></_>
        <_>
          <internalNodes>
            0 -1 1154 -4.3166391551494598e-02</internalNodes>
          <leafValues>
            2.0788240432739258e-01 -1.2518903613090515e-01</leafValues></_>
        <_>
          <internalNodes>
            0 -1 277 1.5355454757809639e-02</internalNodes>
          <leafValues>
            -7.2112165391445160e-02 3.4864765405654907e-01</leafValues></_>
        <_>
          <internalNodes>
            0 -1 720 3.1122021027840674e-05</internalNodes>
          <leafValues>
            -1.5578821301460266e-01 1.5601451694965363e-01</leafValues></_>
        <_>
          <internalNodes>
            0 -1 1749 9.8131559789180756e-03</internalNodes>
          <leafValues>
            -1.3070826232433319e-01 1.7287355661392212e-01</leafValues></_>
        <_>
          <internalNodes>
            0 -1 157 -4.1278466582298279e-02</internalNodes>
          <leafValues>
            -7.1419602632522583e-01 2.6131754741072655e-02</leafValues></_>
        <_>
          <internalNodes>
            0 -1 244 4.4264859752729535e-04</internalNodes>
          <leafValues>
            5.9178519994020462e-02 -3.2740524411201477e-01</leafValues></_>
        <_>
          <internalNodes>
            0 -1 1586 1.4896175125613809e-03</internalNodes>
          <leafValues>
            -7.9846039414405823e-02 2.4838323891162872e-01</leafValues></_>
        <_>
          <internalNodes>
            0 -1 1932 -5.3427512757480145e-03</internalNodes>
          <leafValues>
            -5.2389824390411377e-01 3.6513470113277435e-02</leafValues></_>
        <_>
          <internalNodes>
            0 -1 792 -4.9421302974224091e-03</internalNodes>
          <leafValues>
            2.0429953932762146e-01 -9.5081388950347900e-02</leafValues></_>
        <_>
          <internalNodes>
            0 -1 537 -1.1267971713095903e-03</internalNodes>
          <leafValues>
            1.9177687168121338e-01 -1.0539197921752930e-01</leafValues></_>
        <_>
          <internalNodes>
            0 -1 1998 -5.6746444897726178e-04</internalNodes>
          <leafValues>
            -3.0589294433593750e-01 6.2053795903921127e-02</leafValues></_>
        <_>
          <internalNodes>
            0 -1 1585 -1.6008963575586677e-03</internalNodes>
          <leafValues>
            3.1179681420326233e-01 -6.3042126595973969e-02</leafValues></_>
        <_>
          <internalNodes>
            0 -1 550 5.8902532327920198e-04</internalNodes>
          <leafValues>
            -1.0056597739458084e-01 1.8417192995548248e-01</leafValues></_>
        <_>
          <internalNodes>
            0 -1 274 1.7922762036323547e-01</internalNodes>
          <leafValues>
            -6.2256585806608200e-02 2.9491138458251953e-01</leafValues></_>
        <_>
          <internalNodes>
            0 -1 138 -9.6645960584282875e-03</internalNodes>
          <leafValues>
            2.8194281458854675e-01 -7.6545499265193939e-02</leafValues></_>
        <_>
          <internalNodes>
            0 -1 232 6.9341016933321953e-03</internalNodes>
          <leafValues>
            -7.1659430861473083e-02 2.7623045444488525e-01</leafValues></_>
        <_>
          <internalNodes>
            0 -1 1365 -6.7339502274990082e-03</internalNodes>
          <leafValues>
            1.6428504884243011e-01 -1.1095169931650162e-01</leafValues></_>
        <_>
          <internalNodes>
            0 -1 1381 -1.1062053963541985e-03</internalNodes>
          <leafValues>
            -3.0252322554588318e-01 6.3565865159034729e-02</leafValues></_>
        <_>
          <internalNodes>
            0 -1 164 3.6023807479068637e-04</internalNodes>
          <leafValues>
            -8.9365646243095398e-02 2.0451109111309052e-01</leafValues></_>
        <_>
          <internalNodes>
            0 -1 1599 -4.6075644786469638e-04</internalNodes>
          <leafValues>
            -3.4680688381195068e-01 5.2537996321916580e-02</leafValues></_>
        <_>
          <internalNodes>
            0 -1 1599 4.3544665095396340e-04</internalNodes>
          <leafValues>
            6.8225122988224030e-02 -3.1082215905189514e-01</leafValues></_>
        <_>
          <internalNodes>
            0 -1 1455 7.9512633383274078e-03</internalNodes>
          <leafValues>
            -3.7906840443611145e-02 5.5728006362915039e-01</leafValues></_>
        <_>
          <internalNodes>
            0 -1 1674 -8.9550844859331846e-04</internalNodes>
          <leafValues>
            2.7250325679779053e-01 -6.6009856760501862e-02</leafValues></_>
        <_>
          <internalNodes>
            0 -1 1985 8.1754632992669940e-04</internalNodes>
          <leafValues>
            -5.6409288197755814e-02 3.0835866928100586e-01</leafValues></_>
        <_>
          <internalNodes>
            0 -1 730 -6.8120919167995453e-02</internalNodes>
          <leafValues>
            -7.6833087205886841e-01 2.4665739387273788e-02</leafValues></_>
        <_>
          <internalNodes>
            0 -1 475 -3.6165684461593628e-02</internalNodes>
          <leafValues>
            2.5160020589828491e-01 -7.8665181994438171e-02</leafValues></_>
        <_>
          <internalNodes>
            0 -1 1717 -8.8277820032089949e-04</internalNodes>
          <leafValues>
            2.3779593408107758e-01 -7.2509370744228363e-02</leafValues></_>
        <_>
          <internalNodes>
            0 -1 384 -1.9656928256154060e-02</internalNodes>
          <leafValues>
            -3.7225562334060669e-01 4.8447806388139725e-02</leafValues></_>
        <_>
          <internalNodes>
            0 -1 26 -2.6638917624950409e-03</internalNodes>
          <leafValues>
            -9.5544427633285522e-01 1.2778554111719131e-02</leafValues></_>
        <_>
          <internalNodes>
            0 -1 1501 -7.1243613958358765e-02</internalNodes>
          <leafValues>
            -4.4014894962310791e-01 3.3274959772825241e-02</leafValues></_>
        <_>
          <internalNodes>
            0 -1 1155 -4.3735047802329063e-03</internalNodes>
          <leafValues>
            1.4577990770339966e-01 -1.3849745690822601e-01</leafValues></_>
        <_>
          <internalNodes>
            0 -1 160 1.2344666570425034e-01</internalNodes>
          <leafValues>
            -4.2671021074056625e-02 4.5238128304481506e-01</leafValues></_>
        <_>
          <internalNodes>
            0 -1 566 -8.4456484764814377e-03</internalNodes>
          <leafValues>
            1.6966973245143890e-01 -1.0215825587511063e-01</leafValues></_>
        <_>
          <internalNodes>
            0 -1 272 -2.5084991648327559e-05</internalNodes>
          <leafValues>
            1.2505516409873962e-01 -1.3871192932128906e-01</leafValues></_>
        <_>
          <internalNodes>
            0 -1 1483 6.0731381177902222e-02</internalNodes>
          <leafValues>
            -5.1296576857566833e-02 3.4442651271820068e-01</leafValues></_>
        <_>
          <internalNodes>
            0 -1 1267 -1.4777593314647675e-03</internalNodes>
          <leafValues>
            1.6380874812602997e-01 -1.1465512216091156e-01</leafValues></_>
        <_>
          <internalNodes>
            0 -1 723 -6.3978781690821052e-04</internalNodes>
          <leafValues>
            -3.1014081835746765e-01 5.5092856287956238e-02</leafValues></_>
        <_>
          <internalNodes>
            0 -1 214 -1.7163563519716263e-02</internalNodes>
          <leafValues>
            -4.9860104918479919e-01 3.3550720661878586e-02</leafValues></_>
        <_>
          <internalNodes>
            0 -1 840 -2.2308692859951407e-04</internalNodes>
          <leafValues>
            1.3380587100982666e-01 -1.2749563157558441e-01</leafValues></_>
        <_>
          <internalNodes>
            0 -1 913 -2.9800634365528822e-04</internalNodes>
          <leafValues>
            1.6875870525836945e-01 -1.0085815936326981e-01</leafValues></_>
        <_>
          <internalNodes>
            0 -1 269 -3.7458708882331848e-01</internalNodes>
          <leafValues>
            3.5894367098808289e-01 -4.8282265663146973e-02</leafValues></_>
        <_>
          <internalNodes>
            0 -1 709 -1.9086521118879318e-02</internalNodes>
          <leafValues>
            2.1682088077068329e-01 -7.5813040137290955e-02</leafValues></_>
        <_>
          <internalNodes>
            0 -1 1928 1.2247738595760893e-05</internalNodes>
          <leafValues>
            -1.3084520399570465e-01 1.2289325147867203e-01</leafValues></_>
        <_>
          <internalNodes>
            0 -1 1787 4.7746038762852550e-04</internalNodes>
          <leafValues>
            -1.0598830878734589e-01 1.5921975672245026e-01</leafValues></_></weakClassifiers></_>
    <!-- stage 4 -->
    <_>
      <maxWeakCount>66</maxWeakCount>
      <stageThreshold>-1.3411111831665039e+00</stageThreshold>
      <weakClassifiers>
        <_>
          <internalNodes>
            0 -1 419 1.9721880555152893e-01</internalNodes>
          <leafValues>
            -5.1802438497543335e-01 3.6927621811628342e-02</leafValues></_>
        <_>
          <internalNodes>
            0 -1 1969 3.4695051144808531e-03</internalNodes>
          <leafValues>
            -1.8257971107959747e-01 2.4309906363487244e-01</leafValues></_>
        <_>
          <internalNodes>
            0 -1 1707 2.6411298676976003e-05</internalNodes>
          <leafValues>
            -1.7358475923538208e-01 1.7931465804576874e-01</leafValues></_>
        <_>
          <internalNodes>
            0 -1 212 -4.8851408064365387e-03</internalNodes>
          <leafValues>
            2.1552409231662750e-01 -1.3070039451122284e-01</leafValues></_>
        <_>
          <internalNodes>
            0 -1 793 -1.4598564803600311e-01</internalNodes>
          <leafValues>
            2.4517147243022919e-01 -1.1581182479858398e-01</leafValues></_>
        <_>
          <internalNodes>
            0 -1 623 1.4245720580220222e-02</internalNodes>
          <leafValues>
            -5.9141088277101517e-02 3.6935406923294067e-01</leafValues></_>
        <_>
          <internalNodes>
            0 -1 1707 1.1698794551193714e-03</internalNodes>
          <leafValues>
            1.0993753373622894e-01 -3.2872009277343750e-01</leafValues></_>
        <_>
          <internalNodes>
            0 -1 1683 -1.6529764980077744e-02</internalNodes>
          <leafValues>
            1.1795735359191895e-01 -1.9312646985054016e-01</leafValues></_>
        <_>
          <internalNodes>
            0 -1 1029 -4.7427047975361347e-03</internalNodes>
          <leafValues>
            2.5445812940597534e-01 -6.7171834409236908e-02</leafValues></_>
        <_>
          <internalNodes>
            0 -1 1118 -5.6242141872644424e-03</internalNodes>
          <leafValues>
            2.6145729422569275e-01 -9.5560409128665924e-02</leafValues></_>
        <_>
          <internalNodes>
            0 -1 1925 2.6302506739739329e-05</internalNodes>
          <leafValues>
            -1.6100087761878967e-01 1.3682845234870911e-01</leafValues></_>
        <_>
          <internalNodes>
            0 -1 1045 -6.4311236143112183e-02</internalNodes>
          <leafValues>
            3.2271185517311096e-01 -6.3964113593101501e-02</leafValues></_>
        <_>
          <internalNodes>
            0 -1 1231 -4.0563881397247314e-02</internalNodes>
          <leafValues>
            3.2460370659828186e-01 -8.3994932472705841e-02</leafValues></_>
        <_>
          <internalNodes>
            0 -1 1944 -7.6726037077605724e-03</internalNodes>
          <leafValues>
            3.2555541396141052e-01 -6.0964580625295639e-02</leafValues></_>
        <_>
          <internalNodes>
            0 -1 1 7.6399242971092463e-04</internalNodes>
          <leafValues>
            6.1663571745157242e-02 -3.2194724678993225e-01</leafValues></_>
        <_>
          <internalNodes>
            0 -1 1100 -5.5333701893687248e-03</internalNodes>
          <leafValues>
            2.2616656124591827e-01 -8.8777542114257813e-02</leafValues></_>
        <_>
          <internalNodes>
            0 -1 1270 3.5570538602769375e-03</internalNodes>
          <leafValues>
            -6.4168356359004974e-02 3.1885424256324768e-01</leafValues></_>
        <_>
          <internalNodes>
            0 -1 1691 7.2896666824817657e-03</internalNodes>
          <leafValues>
            -7.6499901711940765e-02 2.3501056432723999e-01</leafValues></_>
        <_>
          <internalNodes>
            0 -1 1104 5.4253666894510388e-04</internalNodes>
          <leafValues>
            5.5921051651239395e-02 -3.4658530354499817e-01</leafValues></_>
        <_>
          <internalNodes>
            0 -1 303 1.6773387789726257e-01</internalNodes>
          <leafValues>
            -5.4144579917192459e-02 3.8628214597702026e-01</leafValues></_>
        <_>
          <internalNodes>
            0 -1 395 1.2697810307145119e-02</internalNodes>
          <leafValues>
            -1.0530275851488113e-01 1.7716991901397705e-01</leafValues></_>
        <_>
          <internalNodes>
            0 -1 70 -2.1594092249870300e-02</internalNodes>
          <leafValues>
            2.2686934471130371e-01 -8.8427767157554626e-02</leafValues></_>
        <_>
          <internalNodes>
            0 -1 383 -1.8239974975585938e-02</internalNodes>
          <leafValues>
            -7.0687490701675415e-01 2.7629621326923370e-02</leafValues></_>
        <_>
          <internalNodes>
            0 -1 615 -6.3916901126503944e-05</internalNodes>
          <leafValues>
            1.2025441229343414e-01 -1.4381076395511627e-01</leafValues></_>
        <_>
          <internalNodes>
            0 -1 376 2.1721930243074894e-03</internalNodes>
          <leafValues>
            4.1033364832401276e-02 -3.8082346320152283e-01</leafValues></_>
        <_>
          <internalNodes>
            0 -1 631 -1.8198305042460561e-03</internalNodes>
          <leafValues>
            1.7643955349922180e-01 -9.6051201224327087e-02</leafValues></_>
        <_>
          <internalNodes>
            0 -1 538 -1.7205554759129882e-03</internalNodes>
          <leafValues>
            1.7824387550354004e-01 -1.1332388222217560e-01</leafValues></_>
        <_>
          <internalNodes>
            0 -1 1815 -5.4302730131894350e-04</internalNodes>
          <leafValues>
            -2.8468337655067444e-01 6.2493689358234406e-02</leafValues></_>
        <_>
          <internalNodes>
            0 -1 779 6.2280986458063126e-04</internalNodes>
          <leafValues>
            5.6703664362430573e-02 -2.8910827636718750e-01</leafValues></_>
        <_>
          <internalNodes>
            0 -1 589 -1.6494574956595898e-03</internalNodes>
          <leafValues>
            1.5217587351799011e-01 -1.0833740979433060e-01</leafValues></_>
        <_>
          <internalNodes>
            0 -1 193 -1.2589010410010815e-02</internalNodes>
          <leafValues>
            1.8067398667335510e-01 -1.1327496170997620e-01</leafValues></_>
        <_>
          <internalNodes>
            0 -1 1265 -1.5562929911538959e-03</internalNodes>
          <leafValues>
            1.5509556233882904e-01 -1.3402847945690155e-01</leafValues></_>
        <_>
          <internalNodes>
            0 -1 1226 -8.5202110931277275e-03</internalNodes>
          <leafValues>
            1.5211261808872223e-01 -1.1616451293230057e-01</leafValues></_>
        <_>
          <internalNodes>
            0 -1 1468 2.0543439313769341e-04</internalNodes>
          <leafValues>
            7.7155724167823792e-02 -2.1459707617759705e-01</leafValues></_>
        <_>
          <internalNodes>
            0 -1 1579 -2.3871627490734681e-05</internalNodes>
          <leafValues>
            1.3791027665138245e-01 -1.2252476811408997e-01</leafValues></_>
        <_>
          <internalNodes>
            0 -1 716 -7.1317772381007671e-03</internalNodes>
          <leafValues>
            1.9728152453899384e-01 -8.1323318183422089e-02</leafValues></_>
        <_>
          <internalNodes>
            0 -1 1273 -2.6542351406533271e-05</internalNodes>
          <leafValues>
            1.4967027306556702e-01 -1.2052745372056961e-01</leafValues></_>
        <_>
          <internalNodes>
            0 -1 1743 6.5230533480644226e-02</internalNodes>
          <leafValues>
            3.9099246263504028e-02 -5.1609748601913452e-01</leafValues></_>
        <_>
          <internalNodes>
            0 -1 1565 -1.0486021637916565e-01</internalNodes>
          <leafValues>
            -6.8248361349105835e-01 2.2023200988769531e-02</leafValues></_>
        <_>
          <internalNodes>
            0 -1 522 1.9608156755566597e-02</internalNodes>
          <leafValues>
            4.0600840002298355e-02 -3.8792315125465393e-01</leafValues></_>
        <_>
          <internalNodes>
            0 -1 23 5.5842958390712738e-03</internalNodes>
          <leafValues>
            -8.3374321460723877e-02 2.1126313507556915e-01</leafValues></_>
        <_>
          <internalNodes>
            0 -1 226 -3.2846005633473396e-03</internalNodes>
          <leafValues>
            -6.6341590881347656e-01 2.3773664608597755e-02</leafValues></_>
        <_>
          <internalNodes>
            0 -1 432 -4.1771989315748215e-02</internalNodes>
          <leafValues>
            -5.5118012428283691e-01 2.4912817403674126e-02</leafValues></_>
        <_>
          <internalNodes>
            0 -1 1947 1.1028737062588334e-03</internalNodes>
          <leafValues>
            -9.8248451948165894e-02 1.7819802463054657e-01</leafValues></_>
        <_>
          <internalNodes>
            0 -1 131 -5.1771746948361397e-03</internalNodes>
          <leafValues>
            2.5324901938438416e-01 -6.2115039676427841e-02</leafValues></_>
        <_>
          <internalNodes>
            0 -1 972 -1.9209843594580889e-03</internalNodes>
          <leafValues>
            -3.9693683385848999e-01 4.1144922375679016e-02</leafValues></_>
        <_>
          <internalNodes>
            0 -1 660 -6.1650332063436508e-03</internalNodes>
          <leafValues>
            1.7595343291759491e-01 -9.3534059822559357e-02</leafValues></_>
        <_>
          <internalNodes>
            0 -1 445 -2.6339404284954071e-03</internalNodes>
          <leafValues>
            1.7787127196788788e-01 -1.0122836381196976e-01</leafValues></_>
        <_>
          <internalNodes>
            0 -1 1663 -8.6333742365241051e-04</internalNodes>
          <leafValues>
            2.0068958401679993e-01 -8.7492965161800385e-02</leafValues></_>
        <_>
          <internalNodes>
            0 -1 1020 6.9226347841322422e-04</internalNodes>
          <leafValues>
            5.6086204946041107e-02 -3.0260217189788818e-01</leafValues></_>
        <_>
          <internalNodes>
            0 -1 905 -2.8968390077352524e-02</internalNodes>
          <leafValues>
            1.8066935241222382e-01 -9.3552015721797943e-02</leafValues></_>
        <_>
          <internalNodes>
            0 -1 478 -8.3311162889003754e-03</internalNodes>
          <leafValues>
            1.8643127381801605e-01 -9.6629358828067780e-02</leafValues></_>
        <_>
          <internalNodes>
            0 -1 799 -8.1141460686922073e-03</internalNodes>
          <leafValues>
            1.4124087989330292e-01 -1.4535325765609741e-01</leafValues></_>
        <_>
          <internalNodes>
            0 -1 521 -1.4065980911254883e-01</internalNodes>
          <leafValues>
            3.2832208275794983e-01 -5.3170759230852127e-02</leafValues></_>
        <_>
          <internalNodes>
            0 -1 690 -1.3937169685959816e-02</internalNodes>
          <leafValues>
            1.8801189959049225e-01 -9.8052762448787689e-02</leafValues></_>
        <_>
          <internalNodes>
            0 -1 428 1.3951179385185242e-01</internalNodes>
          <leafValues>
            -3.9646245539188385e-02 4.5263582468032837e-01</leafValues></_>
        <_>
          <internalNodes>
            0 -1 302 -4.2901765555143356e-03</internalNodes>
          <leafValues>
            1.4806202054023743e-01 -1.1775895953178406e-01</leafValues></_>
        <_>
          <internalNodes>
            0 -1 403 5.5243060924112797e-03</internalNodes>
          <leafValues>
            -1.1460235714912415e-01 1.9091002643108368e-01</leafValues></_>
        <_>
          <internalNodes>
            0 -1 316 1.5937857329845428e-02</internalNodes>
          <leafValues>
            -5.9165619313716888e-02 3.2392069697380066e-01</leafValues></_>
        <_>
          <internalNodes>
            0 -1 1026 -6.4127696678042412e-03</internalNodes>
          <leafValues>
            -2.5639685988426208e-01 6.7193493247032166e-02</leafValues></_>
        <_>
          <internalNodes>
            0 -1 1383 2.5726808235049248e-03</internalNodes>
          <leafValues>
            -9.3548618257045746e-02 1.7835217714309692e-01</leafValues></_>
        <_>
          <internalNodes>
            0 -1 760 2.5271605700254440e-02</internalNodes>
          <leafValues>
            -7.1948535740375519e-02 2.2563125193119049e-01</leafValues></_>
        <_>
          <internalNodes>
            0 -1 874 -8.7276231497526169e-03</internalNodes>
          <leafValues>
            1.6232629120349884e-01 -1.1903087794780731e-01</leafValues></_>
        <_>
          <internalNodes>
            0 -1 935 -1.5332572162151337e-02</internalNodes>
          <leafValues>
            1.9585268199443817e-01 -8.3636142313480377e-02</leafValues></_>
        <_>
          <internalNodes>
            0 -1 1599 4.3344352161511779e-04</internalNodes>
          <leafValues>
            5.8047913014888763e-02 -2.6666262745857239e-01</leafValues></_>
        <_>
          <internalNodes>
            0 -1 1564 -9.1146677732467651e-03</internalNodes>
          <leafValues>
            1.5765853226184845e-01 -9.8881475627422333e-02</leafValues></_></weakClassifiers></_>
    <!-- stage 5 -->
    <_>
      <maxWeakCount>79</maxWeakCount>
      <stageThreshold>-1.3877503871917725e+00</stageThreshold>
      <weakClassifiers>
        <_>
          <internalNodes>
            0 -1 679 -2.8161576390266418e-01</internalNodes>
          <leafValues>
            -1.3617886602878571e-01 -5.1803481578826904e-01</leafValues></_>
        <_>
          <internalNodes>
            0 -1 168 -5.0851292908191681e-03</internalNodes>
          <leafValues>
            2.7427870035171509e-01 -1.6660228371620178e-01</leafValues></_>
        <_>
          <internalNodes>
            0 -1 1876 -3.9181194733828306e-04</internalNodes>
          <leafValues>
            -3.8507527112960815e-01 7.9322375357151031e-02</leafValues></_>
        <_>
          <internalNodes>
            0 -1 1877 1.0343114845454693e-03</internalNodes>
          <leafValues>
            1.0112949460744858e-01 -4.1072949767112732e-01</leafValues></_>
        <_>
          <internalNodes>
            0 -1 613 4.4489111751317978e-03</internalNodes>
          <leafValues>
            -1.5108181536197662e-01 1.7520001530647278e-01</leafValues></_>
        <_>
          <internalNodes>
            0 -1 1422 2.7277460321784019e-03</internalNodes>
          <leafValues>
            -1.2907736003398895e-01 1.9390748441219330e-01</leafValues></_>
        <_>
          <internalNodes>
            0 -1 510 1.2672661978285760e-04</internalNodes>
          <leafValues>
            8.5149452090263367e-02 -2.6186695694923401e-01</leafValues></_>
        <_>
          <internalNodes>
            0 -1 60 -2.2029250860214233e-02</internalNodes>
          <leafValues>
            1.7157316207885742e-01 -1.2655085325241089e-01</leafValues></_>
        <_>
          <internalNodes>
            0 -1 1942 5.6225331500172615e-03</internalNodes>
          <leafValues>
            -8.4677100181579590e-02 2.4171464145183563e-01</leafValues></_>
        <_>
          <internalNodes>
            0 -1 876 -3.7902395706623793e-03</internalNodes>
          <leafValues>
            -4.9676570296287537e-01 3.1888846307992935e-02</leafValues></_>
        <_>
          <internalNodes>
            0 -1 10 1.1924851685762405e-02</internalNodes>
          <leafValues>
            4.9398265779018402e-02 -3.2973974943161011e-01</leafValues></_>
        <_>
          <internalNodes>
            0 -1 23 1.2547334656119347e-02</internalNodes>
          <leafValues>
            -6.7472584545612335e-02 2.6762124896049500e-01</leafValues></_>
        <_>
          <internalNodes>
            0 -1 32 3.8051858544349670e-02</internalNodes>
          <leafValues>
            -7.2437368333339691e-02 2.7142345905303955e-01</leafValues></_>
        <_>
          <internalNodes>
            0 -1 804 2.7620267122983932e-02</internalNodes>
          <leafValues>
            -5.0383359193801880e-02 3.3994823694229126e-01</leafValues></_>
        <_>
          <internalNodes>
            0 -1 1108 -1.1831622570753098e-02</internalNodes>
          <leafValues>
            3.8997188210487366e-01 -4.1535776108503342e-02</leafValues></_>
        <_>
          <internalNodes>
            0 -1 81 7.1083237417042255e-03</internalNodes>
          <leafValues>
            -7.6788313686847687e-02 2.1688318252563477e-01</leafValues></_>
        <_>
          <internalNodes>
            0 -1 418 -6.8445220589637756e-02</internalNodes>
          <leafValues>
            2.5754877924919128e-01 -7.0591986179351807e-02</leafValues></_>
        <_>
          <internalNodes>
            0 -1 245 7.7536830212920904e-04</internalNodes>
          <leafValues>
            6.0568355023860931e-02 -3.2117691636085510e-01</leafValues></_>
        <_>
          <internalNodes>
            0 -1 245 -7.6075631659477949e-04</internalNodes>
          <leafValues>
            -3.2685109972953796e-01 5.9987094253301620e-02</leafValues></_>
        <_>
          <internalNodes>
            0 -1 96 -1.8139496445655823e-02</internalNodes>
          <leafValues>
            1.8307544291019440e-01 -1.0318922251462936e-01</leafValues></_>
        <_>
          <internalNodes>
            0 -1 998 5.4019771516323090e-02</internalNodes>
          <leafValues>
            -3.3267103135585785e-02 5.7723772525787354e-01</leafValues></_>
        <_>
          <internalNodes>
            0 -1 997 -1.9454646855592728e-02</internalNodes>
          <leafValues>
            3.4521540999412537e-01 -4.0639124810695648e-02</leafValues></_>
        <_>
          <internalNodes>
            0 -1 315 -9.4514116644859314e-02</internalNodes>
          <leafValues>
            2.8324437141418457e-01 -5.6703019887208939e-02</leafValues></_>
        <_>
          <internalNodes>
            0 -1 1176 -6.5951988101005554e-02</internalNodes>
          <leafValues>
            2.6800319552421570e-01 -6.7287258803844452e-02</leafValues></_>
        <_>
          <internalNodes>
            0 -1 144 -7.8355278819799423e-03</internalNodes>
          <leafValues>
            -5.8336240053176880e-01 2.9356164857745171e-02</leafValues></_>
        <_>
          <internalNodes>
            0 -1 1809 -1.3611702015623450e-03</internalNodes>
          <leafValues>
            1.6281805932521820e-01 -9.9551662802696228e-02</leafValues></_>
        <_>
          <internalNodes>
            0 -1 97 -2.5406133383512497e-02</internalNodes>
          <leafValues>
            -6.2204378843307495e-01 2.5307314470410347e-02</leafValues></_>
        <_>
          <internalNodes>
            0 -1 1806 -1.3948641717433929e-02</internalNodes>
          <leafValues>
            4.4080376625061035e-01 -4.0680389851331711e-02</leafValues></_>
        <_>
          <internalNodes>
            0 -1 1877 -2.4637300521135330e-03</internalNodes>
          <leafValues>
            -5.7735246419906616e-01 3.1215805560350418e-02</leafValues></_>
        <_>
          <internalNodes>
            0 -1 402 4.3891053646802902e-03</internalNodes>
          <leafValues>
            -8.8707163929939270e-02 1.7679384350776672e-01</leafValues></_>
        <_>
          <internalNodes>
            0 -1 954 -1.7313444986939430e-02</internalNodes>
          <leafValues>
            1.7227998375892639e-01 -1.0896948724985123e-01</leafValues></_>
        <_>
          <internalNodes>
            0 -1 1966 2.0610494539141655e-03</internalNodes>
          <leafValues>
            -5.8596525341272354e-02 2.6251816749572754e-01</leafValues></_>
        <_>
          <internalNodes>
            0 -1 2007 -5.5997143499553204e-04</internalNodes>
          <leafValues>
            -2.2487394511699677e-01 6.7765124142169952e-02</leafValues></_>
        <_>
          <internalNodes>
            0 -1 251 2.0237541757524014e-03</internalNodes>
          <leafValues>
            4.9927961081266403e-02 -2.9973375797271729e-01</leafValues></_>
        <_>
          <internalNodes>
            0 -1 1293 -1.7383087426424026e-02</internalNodes>
          <leafValues>
            -5.5269384384155273e-01 2.6146715506911278e-02</leafValues></_>
        <_>
          <internalNodes>
            0 -1 1967 -1.8900763243436813e-03</internalNodes>
          <leafValues>
            2.2349590063095093e-01 -6.7931510508060455e-02</leafValues></_>
        <_>
          <internalNodes>
            0 -1 129 1.3330103829503059e-02</internalNodes>
          <leafValues>
            3.0610203742980957e-02 -4.8622578382492065e-01</leafValues></_>
        <_>
          <internalNodes>
            0 -1 1625 -1.1076902737841010e-03</internalNodes>
          <leafValues>
            -3.4997457265853882e-01 3.8577459752559662e-02</leafValues></_>
        <_>
          <internalNodes>
            0 -1 276 -9.6176192164421082e-03</internalNodes>
          <leafValues>
            2.0635761320590973e-01 -7.1471184492111206e-02</leafValues></_>
        <_>
          <internalNodes>
            0 -1 1121 -1.3127424754202366e-03</internalNodes>
          <leafValues>
            1.3957473635673523e-01 -1.4679473638534546e-01</leafValues></_>
        <_>
          <internalNodes>
            0 -1 1039 -1.0314428806304932e-01</internalNodes>
          <leafValues>
            3.2422456145286560e-01 -5.0884649157524109e-02</leafValues></_>
        <_>
          <internalNodes>
            0 -1 1304 -7.2982251644134521e-02</internalNodes>
          <leafValues>
            1.3815228641033173e-01 -1.1375907063484192e-01</leafValues></_>
        <_>
          <internalNodes>
            0 -1 582 -2.9242418706417084e-02</internalNodes>
          <leafValues>
            2.6660120487213135e-01 -6.0864832252264023e-02</leafValues></_>
        <_>
          <internalNodes>
            0 -1 599 1.2828459730371833e-03</internalNodes>
          <leafValues>
            -9.9747829139232635e-02 1.5261550247669220e-01</leafValues></_>
        <_>
          <internalNodes>
            0 -1 567 -3.9723822847008705e-03</internalNodes>
          <leafValues>
            -5.1416033506393433e-01 3.0546599999070168e-02</leafValues></_>
        <_>
          <internalNodes>
            0 -1 98 -9.7131645306944847e-03</internalNodes>
          <leafValues>
            1.3317534327507019e-01 -1.1210560053586960e-01</leafValues></_>
        <_>
          <internalNodes>
            0 -1 329 4.6415040269494057e-03</internalNodes>
          <leafValues>
            -8.0133281648159027e-02 1.9399528205394745e-01</leafValues></_>
        <_>
          <internalNodes>
            0 -1 494 -2.5693229399621487e-03</internalNodes>
          <leafValues>
            1.8277746438980103e-01 -8.1874124705791473e-02</leafValues></_>
        <_>
          <internalNodes>
            0 -1 723 3.5957749933004379e-03</internalNodes>
          <leafValues>
            1.5798345208168030e-02 -8.2413476705551147e-01</leafValues></_>
        <_>
          <internalNodes>
            0 -1 1476 -1.6341145383194089e-03</internalNodes>
          <leafValues>
            -2.7700492739677429e-01 4.8011783510446548e-02</leafValues></_>
        <_>
          <internalNodes>
            0 -1 487 4.3449243530631065e-03</internalNodes>
          <leafValues>
            -7.2808876633644104e-02 1.8372325599193573e-01</leafValues></_>
        <_>
          <internalNodes>
            0 -1 223 -8.6729871109127998e-03</internalNodes>
          <leafValues>
            1.9658371806144714e-01 -8.6135685443878174e-02</leafValues></_>
        <_>
          <internalNodes>
            0 -1 1260 -2.5226247962564230e-03</internalNodes>
          <leafValues>
            -3.1339806318283081e-01 5.1768351346254349e-02</leafValues></_>
        <_>
          <internalNodes>
            0 -1 236 -3.8017984479665756e-04</internalNodes>
          <leafValues>
            -2.1857483685016632e-01 6.7713841795921326e-02</leafValues></_>
        <_>
          <internalNodes>
            0 -1 1170 -1.9899522885680199e-04</internalNodes>
          <leafValues>
            -1.9441460072994232e-01 7.8922808170318604e-02</leafValues></_>
        <_>
          <internalNodes>
            0 -1 1545 1.6664591431617737e-01</internalNodes>
          <leafValues>
            1.8504049628973007e-02 -7.3614966869354248e-01</leafValues></_>
        <_>
          <internalNodes>
            0 -1 1161 9.1180333402007818e-04</internalNodes>
          <leafValues>
            6.5696395933628082e-02 -2.0622231066226959e-01</leafValues></_>
        <_>
          <internalNodes>
            0 -1 203 -2.4023526348173618e-03</internalNodes>
          <leafValues>
            -4.7815376520156860e-01 3.0441854149103165e-02</leafValues></_>
        <_>
          <internalNodes>
            0 -1 681 -2.1338760852813721e-03</internalNodes>
          <leafValues>
            1.3074716925621033e-01 -1.0540466755628586e-01</leafValues></_>
        <_>
          <internalNodes>
            0 -1 297 1.4480615966022015e-02</internalNodes>
          <leafValues>
            -9.3028962612152100e-02 1.6952621936798096e-01</leafValues></_>
        <_>
          <internalNodes>
            0 -1 1042 -8.5276254685595632e-04</internalNodes>
          <leafValues>
            1.3216578960418701e-01 -1.0833043605089188e-01</leafValues></_>
        <_>
          <internalNodes>
            0 -1 414 8.9645572006702423e-03</internalNodes>
          <leafValues>
            -8.1116855144500732e-02 1.8217642605304718e-01</leafValues></_>
        <_>
          <internalNodes>
            0 -1 852 -8.3512105047702789e-03</internalNodes>
          <leafValues>
            1.8346852064132690e-01 -1.0420057922601700e-01</leafValues></_>
        <_>
          <internalNodes>
            0 -1 1623 4.7420309856534004e-03</internalNodes>
          <leafValues>
            4.0275685489177704e-02 -4.3245613574981689e-01</leafValues></_>
        <_>
          <internalNodes>
            0 -1 1023 1.1501269415020943e-02</internalNodes>
          <leafValues>
            3.5702291876077652e-02 -4.2812085151672363e-01</leafValues></_>
        <_>
          <internalNodes>
            0 -1 531 6.3477130606770515e-03</internalNodes>
          <leafValues>
            -5.3957026451826096e-02 2.6659193634986877e-01</leafValues></_>
        <_>
          <internalNodes>
            0 -1 15 -1.4944382011890411e-02</internalNodes>
          <leafValues>
            -4.2555221915245056e-01 3.2913874834775925e-02</leafValues></_>
        <_>
          <internalNodes>
            0 -1 1313 -4.4365942478179932e-02</internalNodes>
          <leafValues>
            3.4197923541069031e-01 -4.2776152491569519e-02</leafValues></_>
        <_>
          <internalNodes>
            0 -1 1342 8.8736228644847870e-03</internalNodes>
          <leafValues>
            -5.3734809160232544e-02 2.7610692381858826e-01</leafValues></_>
        <_>
          <internalNodes>
            0 -1 992 -5.3842552006244659e-03</internalNodes>
          <leafValues>
            1.6940490901470184e-01 -8.3340130746364594e-02</leafValues></_>
        <_>
          <internalNodes>
            0 -1 1014 -1.7286356538534164e-02</internalNodes>
          <leafValues>
            2.4477852880954742e-01 -5.7909451425075531e-02</leafValues></_>
        <_>
          <internalNodes>
            0 -1 1282 2.1141786128282547e-03</internalNodes>
          <leafValues>
            -6.7422755062580109e-02 1.9044119119644165e-01</leafValues></_>
        <_>
          <internalNodes>
            0 -1 1104 7.1196770295500755e-04</internalNodes>
          <leafValues>
            3.8445055484771729e-02 -3.4450972080230713e-01</leafValues></_>
        <_>
          <internalNodes>
            0 -1 154 6.0743112117052078e-03</internalNodes>
          <leafValues>
            -5.0671901553869247e-02 2.6618713140487671e-01</leafValues></_>
        <_>
          <internalNodes>
            0 -1 30 -8.2831941545009613e-03</internalNodes>
          <leafValues>
            -6.7536175251007080e-01 2.0346673205494881e-02</leafValues></_>
        <_>
          <internalNodes>
            0 -1 502 -7.1699231863021851e-02</internalNodes>
          <leafValues>
            6.2031680345535278e-01 -2.4286089465022087e-02</leafValues></_>
        <_>
          <internalNodes>
            0 -1 1104 -4.8957613762468100e-04</internalNodes>
          <leafValues>
            -2.6737055182456970e-01 5.4264545440673828e-02</leafValues></_>
        <_>
          <internalNodes>
            0 -1 841 -2.9417623300105333e-03</internalNodes>
          <leafValues>
            1.6285951435565948e-01 -8.4399074316024780e-02</leafValues></_>
        <_>
          <internalNodes>
            0 -1 842 -9.1684935614466667e-03</internalNodes>
          <leafValues>
            1.8303470313549042e-01 -7.7019304037094116e-02</leafValues></_></weakClassifiers></_>
    <!-- stage 6 -->
    <_>
      <maxWeakCount>78</maxWeakCount>
      <stageThreshold>-1.2484698295593262e+00</stageThreshold>
      <weakClassifiers>
        <_>
          <internalNodes>
            0 -1 656 1.6207903623580933e-01</internalNodes>
          <leafValues>
            -5.0525087118148804e-01 -8.8082902133464813e-02</leafValues></_>
        <_>
          <internalNodes>
            0 -1 116 -3.2897416967898607e-03</internalNodes>
          <leafValues>
            1.7892891168594360e-01 -1.6289825737476349e-01</leafValues></_>
        <_>
          <internalNodes>
            0 -1 235 3.7098012398928404e-04</internalNodes>
          <leafValues>
            6.5982215106487274e-02 -3.6894267797470093e-01</leafValues></_>
        <_>
          <internalNodes>
            0 -1 1929 -4.0919467573985457e-04</internalNodes>
          <leafValues>
            -2.5396504998207092e-01 1.1165499687194824e-01</leafValues></_>
        <_>
          <internalNodes>
            0 -1 1999 -4.2059909901581705e-04</internalNodes>
          <leafValues>
            -3.7918266654014587e-01 6.6923245787620544e-02</leafValues></_>
        <_>
          <internalNodes>
            0 -1 1908 -5.2567822858691216e-03</internalNodes>
          <leafValues>
            2.5973945856094360e-01 -1.0333386063575745e-01</leafValues></_>
        <_>
          <internalNodes>
            0 -1 1968 3.1417941208928823e-03</internalNodes>
          <leafValues>
            -7.3856711387634277e-02 2.6366981863975525e-01</leafValues></_>
        <_>
          <internalNodes>
            0 -1 505 -1.2942318790010177e-05</internalNodes>
          <leafValues>
            1.3638250529766083e-01 -1.6313099861145020e-01</leafValues></_>
        <_>
          <internalNodes>
            0 -1 64 2.5455649010837078e-03</internalNodes>
          <leafValues>
            -8.0223776400089264e-02 2.3418271541595459e-01</leafValues></_>
        <_>
          <internalNodes>
            0 -1 703 -2.0087871700525284e-02</internalNodes>
          <leafValues>
            2.4621556699275970e-01 -7.4575804173946381e-02</leafValues></_>
        <_>
          <internalNodes>
            0 -1 1697 5.2145579829812050e-03</internalNodes>
          <leafValues>
            -5.9593413025140762e-02 2.8392964601516724e-01</leafValues></_>
        <_>
          <internalNodes>
            0 -1 1873 2.5967790861614048e-05</internalNodes>
          <leafValues>
            -1.4776025712490082e-01 1.2223980575799942e-01</leafValues></_>
        <_>
          <internalNodes>
            0 -1 777 -6.1715919524431229e-02</internalNodes>
          <leafValues>
            1.7532594501972198e-01 -9.6802994608879089e-02</leafValues></_>
        <_>
          <internalNodes>
            0 -1 555 -7.6006814837455750e-02</internalNodes>
          <leafValues>
            2.5442907214164734e-01 -8.7845161557197571e-02</leafValues></_>
        <_>
          <internalNodes>
            0 -1 262 1.4034794643521309e-02</internalNodes>
          <leafValues>
            -5.8616105467081070e-02 3.1604552268981934e-01</leafValues></_>
        <_>
          <internalNodes>
            0 -1 2004 -3.9553209207952023e-03</internalNodes>
          <leafValues>
            -7.1251702308654785e-01 2.2617997601628304e-02</leafValues></_>
        <_>
          <internalNodes>
            0 -1 196 6.8507716059684753e-04</internalNodes>
          <leafValues>
            -7.3904901742935181e-02 2.1117921173572540e-01</leafValues></_>
        <_>
          <internalNodes>
            0 -1 933 -6.9804750382900238e-03</internalNodes>
          <leafValues>
            2.2929166257381439e-01 -6.3147485256195068e-02</leafValues></_>
        <_>
          <internalNodes>
            0 -1 504 2.4268725610454567e-05</internalNodes>
          <leafValues>
            -1.0953074693679810e-01 1.3562643527984619e-01</leafValues></_>
        <_>
          <internalNodes>
            0 -1 5 -1.0789495427161455e-03</internalNodes>
          <leafValues>
            -2.2760589420795441e-01 6.1161294579505920e-02</leafValues></_>
        <_>
          <internalNodes>
            0 -1 17 1.5169057995080948e-02</internalNodes>
          <leafValues>
            -4.0605038404464722e-02 3.7744435667991638e-01</leafValues></_>
        <_>
          <internalNodes>
            0 -1 955 8.3723049610853195e-03</internalNodes>
          <leafValues>
            4.5325912535190582e-02 -3.1273537874221802e-01</leafValues></_>
        <_>
          <internalNodes>
            0 -1 1490 1.3432553038001060e-02</internalNodes>
          <leafValues>
            1.7211938276886940e-02 -7.1560084819793701e-01</leafValues></_>
        <_>
          <internalNodes>
            0 -1 2003 6.3339818734675646e-04</internalNodes>
          <leafValues>
            5.5195227265357971e-02 -2.3946434259414673e-01</leafValues></_>
        <_>
          <internalNodes>
            0 -1 639 -1.4259232208132744e-02</internalNodes>
          <leafValues>
            2.3330652713775635e-01 -5.7916831225156784e-02</leafValues></_>
        <_>
          <internalNodes>
            0 -1 184 -2.6567433960735798e-03</internalNodes>
          <leafValues>
            -4.9071720242500305e-01 2.6170546188950539e-02</leafValues></_>
        <_>
          <internalNodes>
            0 -1 52 -3.8656205870211124e-03</internalNodes>
          <leafValues>
            2.5258612632751465e-01 -5.4098557680845261e-02</leafValues></_>
        <_>
          <internalNodes>
            0 -1 1089 -2.5748202460817993e-05</internalNodes>
          <leafValues>
            1.0875502228736877e-01 -1.2389669567346573e-01</leafValues></_>
        <_>
          <internalNodes>
            0 -1 601 -4.9878433346748352e-03</internalNodes>
          <leafValues>
            1.7249166965484619e-01 -8.1072695553302765e-02</leafValues></_>
        <_>
          <internalNodes>
            0 -1 837 6.4765876159071922e-03</internalNodes>
          <leafValues>
            2.5315131992101669e-02 -4.9522191286087036e-01</leafValues></_>
        <_>
          <internalNodes>
            0 -1 1191 -6.3443267717957497e-03</internalNodes>
          <leafValues>
            1.3551329076290131e-01 -9.9658690392971039e-02</leafValues></_>
        <_>
          <internalNodes>
            0 -1 2019 2.8054499998688698e-03</internalNodes>
          <leafValues>
            2.9593493789434433e-02 -4.9114841222763062e-01</leafValues></_>
        <_>
          <internalNodes>
            0 -1 1349 3.7829428911209106e-03</internalNodes>
          <leafValues>
            4.1498932987451553e-02 -2.9588562250137329e-01</leafValues></_>
        <_>
          <internalNodes>
            0 -1 991 -2.0024187862873077e-02</internalNodes>
          <leafValues>
            3.3924528956413269e-01 -3.9032042026519775e-02</leafValues></_>
        <_>
          <internalNodes>
            0 -1 1019 -1.3703629374504089e-02</internalNodes>
          <leafValues>
            4.3511298298835754e-01 -3.0038904398679733e-02</leafValues></_>
        <_>
          <internalNodes>
            0 -1 73 -2.0911488682031631e-02</internalNodes>
          <leafValues>
            -5.3106206655502319e-01 2.6204437017440796e-02</leafValues></_>
        <_>
          <internalNodes>
            0 -1 283 -5.3978487849235535e-02</internalNodes>
          <leafValues>
            2.2478719055652618e-01 -6.7762076854705811e-02</leafValues></_>
        <_>
          <internalNodes>
            0 -1 36 7.2986036539077759e-02</internalNodes>
          <leafValues>
            -8.5173986852169037e-02 2.4707894027233124e-01</leafValues></_>
        <_>
          <internalNodes>
            0 -1 1335 -8.9184686657972634e-05</internalNodes>
          <leafValues>
            1.1666622012853622e-01 -1.1933572590351105e-01</leafValues></_>
        <_>
          <internalNodes>
            0 -1 1815 4.4077396159991622e-04</internalNodes>
          <leafValues>
            6.0268480330705643e-02 -2.3449325561523438e-01</leafValues></_>
        <_>
          <internalNodes>
            0 -1 230 -6.9823274388909340e-03</internalNodes>
          <leafValues>
            -7.6070845127105713e-01 1.6911836341023445e-02</leafValues></_>
        <_>
          <internalNodes>
            0 -1 939 -1.3941523618996143e-02</internalNodes>
          <leafValues>
            1.6055075824260712e-01 -8.6530812084674835e-02</leafValues></_>
        <_>
          <internalNodes>
            0 -1 1352 -3.9473567157983780e-03</internalNodes>
          <leafValues>
            1.7331939935684204e-01 -8.8509082794189453e-02</leafValues></_>
        <_>
          <internalNodes>
            0 -1 1973 -7.4476632289588451e-04</internalNodes>
          <leafValues>
            1.7965063452720642e-01 -8.0326370894908905e-02</leafValues></_>
        <_>
          <internalNodes>
            0 -1 785 1.1127734556794167e-02</internalNodes>
          <leafValues>
            6.0731161385774612e-02 -2.2644445300102234e-01</leafValues></_>
        <_>
          <internalNodes>
            0 -1 1532 -7.9034373629838228e-04</internalNodes>
          <leafValues>
            -2.9070591926574707e-01 4.5752875506877899e-02</leafValues></_>
        <_>
          <internalNodes>
            0 -1 1859 -4.3354332447052002e-03</internalNodes>
          <leafValues>
            1.8122160434722900e-01 -7.5724482536315918e-02</leafValues></_>
        <_>
          <internalNodes>
            0 -1 1943 -3.9198370650410652e-03</internalNodes>
          <leafValues>
            2.0578928291797638e-01 -7.1382358670234680e-02</leafValues></_>
        <_>
          <internalNodes>
            0 -1 263 -1.9654539227485657e-01</internalNodes>
          <leafValues>
            3.0212548375129700e-01 -4.6272553503513336e-02</leafValues></_>
        <_>
          <internalNodes>
            0 -1 530 5.3914718329906464e-02</internalNodes>
          <leafValues>
            -5.8647770434617996e-02 2.5752630829811096e-01</leafValues></_>
        <_>
          <internalNodes>
            0 -1 1105 3.6610820097848773e-04</internalNodes>
          <leafValues>
            6.1039760708808899e-02 -2.3307223618030548e-01</leafValues></_>
        <_>
          <internalNodes>
            0 -1 712 -9.2558646574616432e-03</internalNodes>
          <leafValues>
            3.8041856884956360e-01 -3.6199253052473068e-02</leafValues></_>
        <_>
          <internalNodes>
            0 -1 1081 2.9172035865485668e-03</internalNodes>
          <leafValues>
            3.3550549298524857e-02 -4.3865355849266052e-01</leafValues></_>
        <_>
          <internalNodes>
            0 -1 1474 -2.0305382087826729e-02</internalNodes>
          <leafValues>
            -7.6596701145172119e-01 1.3836609199643135e-02</leafValues></_>
        <_>
          <internalNodes>
            0 -1 1472 4.8110093921422958e-03</internalNodes>
          <leafValues>
            4.4936034828424454e-02 -2.7440005540847778e-01</leafValues></_>
        <_>
          <internalNodes>
            0 -1 357 -3.7677199579775333e-03</internalNodes>
          <leafValues>
            1.4661453664302826e-01 -8.9966848492622375e-02</leafValues></_>
        <_>
          <internalNodes>
            0 -1 1164 -5.0163090229034424e-02</internalNodes>
          <leafValues>
            3.5494884848594666e-01 -4.0966559201478958e-02</leafValues></_>
        <_>
          <internalNodes>
            0 -1 205 1.0950926691293716e-02</internalNodes>
          <leafValues>
            2.3864246904850006e-02 -6.5521818399429321e-01</leafValues></_>
        <_>
          <internalNodes>
            0 -1 292 -1.3235969468951225e-02</internalNodes>
          <leafValues>
            1.0819763690233231e-01 -1.2333495914936066e-01</leafValues></_>
        <_>
          <internalNodes>
            0 -1 931 1.6934279352426529e-02</internalNodes>
          <leafValues>
            -3.8854181766510010e-02 3.3557945489883423e-01</leafValues></_>
        <_>
          <internalNodes>
            0 -1 995 4.6456451527774334e-03</internalNodes>
          <leafValues>
            -6.3217200338840485e-02 2.3385156691074371e-01</leafValues></_>
        <_>
          <internalNodes>
            0 -1 1102 -4.7171069309115410e-04</internalNodes>
          <leafValues>
            -1.8983374536037445e-01 6.8819046020507813e-02</leafValues></_>
        <_>
          <internalNodes>
            0 -1 1004 -7.6719983480870724e-03</internalNodes>
          <leafValues>
            5.0976300239562988e-01 -2.7084641158580780e-02</leafValues></_>
        <_>
          <internalNodes>
            0 -1 1679 -1.5725709497928619e-02</internalNodes>
          <leafValues>
            -3.9435467123985291e-01 3.6609899252653122e-02</leafValues></_>
        <_>
          <internalNodes>
            0 -1 1961 -1.1815190082415938e-03</internalNodes>
          <leafValues>
            1.6012816131114960e-01 -8.7296836078166962e-02</leafValues></_>
        <_>
          <internalNodes>
            0 -1 413 8.2350894808769226e-03</internalNodes>
          <leafValues>
            2.9087418690323830e-02 -4.1231283545494080e-01</leafValues></_>
        <_>
          <internalNodes>
            0 -1 616 -1.0737527627497911e-03</internalNodes>
          <leafValues>
            1.3022537529468536e-01 -1.0323564708232880e-01</leafValues></_>
        <_>
          <internalNodes>
            0 -1 514 1.1359098367393017e-02</internalNodes>
          <leafValues>
            -5.2899453788995743e-02 2.7459180355072021e-01</leafValues></_>
        <_>
          <internalNodes>
            0 -1 988 -3.2865972025319934e-04</internalNodes>
          <leafValues>
            -1.7013178765773773e-01 7.7160075306892395e-02</leafValues></_>
        <_>
          <internalNodes>
            0 -1 1531 3.9149043732322752e-04</internalNodes>
          <leafValues>
            5.5459477007389069e-02 -2.3043185472488403e-01</leafValues></_>
        <_>
          <internalNodes>
            0 -1 424 9.8514393903315067e-04</internalNodes>
          <leafValues>
            -6.6868200898170471e-02 1.8612010776996613e-01</leafValues></_>
        <_>
          <internalNodes>
            0 -1 584 1.6101680696010590e-02</internalNodes>
          <leafValues>
            -5.5520221590995789e-02 2.2868694365024567e-01</leafValues></_>
        <_>
          <internalNodes>
            0 -1 1314 -3.5733714699745178e-02</internalNodes>
          <leafValues>
            1.2814666330814362e-01 -1.1686328798532486e-01</leafValues></_>
        <_>
          <internalNodes>
            0 -1 805 -2.1706011146306992e-02</internalNodes>
          <leafValues>
            2.6771330833435059e-01 -5.5593948811292648e-02</leafValues></_>
        <_>
          <internalNodes>
            0 -1 1714 -2.1160002797842026e-02</internalNodes>
          <leafValues>
            1.9954712688922882e-01 -6.9283112883567810e-02</leafValues></_>
        <_>
          <internalNodes>
            0 -1 1550 4.2635416612029076e-03</internalNodes>
          <leafValues>
            -7.1101069450378418e-02 2.3250854015350342e-01</leafValues></_>
        <_>
          <internalNodes>
            0 -1 441 4.4101509265601635e-03</internalNodes>
          <leafValues>
            -9.5726609230041504e-02 1.5386445820331573e-01</leafValues></_>
        <_>
          <internalNodes>
            0 -1 1668 -2.2628568112850189e-02</internalNodes>
          <leafValues>
            5.0636088848114014e-01 -2.6900241151452065e-02</leafValues></_></weakClassifiers></_>
    <!-- stage 7 -->
    <_>
      <maxWeakCount>90</maxWeakCount>
      <stageThreshold>-1.2862037420272827e+00</stageThreshold>
      <weakClassifiers>
        <_>
          <internalNodes>
            0 -1 1865 9.2077245935797691e-03</internalNodes>
          <leafValues>
            -5.2301532030105591e-01 -1.9301164150238037e-01</leafValues></_>
        <_>
          <internalNodes>
            0 -1 735 1.7989430576562881e-02</internalNodes>
          <leafValues>
            -1.1819214373826981e-01 2.6760807633399963e-01</leafValues></_>
        <_>
          <internalNodes>
            0 -1 199 -2.9466622509062290e-03</internalNodes>
          <leafValues>
            2.0576710999011993e-01 -1.1026748269796371e-01</leafValues></_>
        <_>
          <internalNodes>
            0 -1 866 -9.7743168473243713e-02</internalNodes>
          <leafValues>
            1.3637514412403107e-01 -1.5734781324863434e-01</leafValues></_>
        <_>
          <internalNodes>
            0 -1 1917 -4.3736035004258156e-03</internalNodes>
          <leafValues>
            2.3047371208667755e-01 -7.5244374573230743e-02</leafValues></_>
        <_>
          <internalNodes>
            0 -1 164 3.5323685733601451e-04</internalNodes>
          <leafValues>
            -8.5817232728004456e-02 2.0000581443309784e-01</leafValues></_>
        <_>
          <internalNodes>
            0 -1 1285 -3.7405483890324831e-03</internalNodes>
          <leafValues>
            2.5803574919700623e-01 -3.9884325116872787e-02</leafValues></_>
        <_>
          <internalNodes>
            0 -1 1895 2.8474319260567427e-03</internalNodes>
          <leafValues>
            -4.8807397484779358e-02 3.0178117752075195e-01</leafValues></_>
        <_>
          <internalNodes>
            0 -1 1292 -7.3544442420825362e-04</internalNodes>
          <leafValues>
            1.1214614659547806e-01 -1.3237732648849487e-01</leafValues></_>
        <_>
          <internalNodes>
            0 -1 227 -3.1204335391521454e-04</internalNodes>
          <leafValues>
            -1.6976486146450043e-01 9.6616230905056000e-02</leafValues></_>
        <_>
          <internalNodes>
            0 -1 1223 -1.3955840840935707e-03</internalNodes>
          <leafValues>
            1.5839424729347229e-01 -9.3946337699890137e-02</leafValues></_>
        <_>
          <internalNodes>
            0 -1 1363 8.7716532871127129e-03</internalNodes>
          <leafValues>
            -8.2570172846317291e-02 1.8369242548942566e-01</leafValues></_>
        <_>
          <internalNodes>
            0 -1 323 9.1578267514705658e-02</internalNodes>
          <leafValues>
            -4.5054599642753601e-02 3.5250672698020935e-01</leafValues></_>
        <_>
          <internalNodes>
            0 -1 176 1.6343998722732067e-03</internalNodes>
          <leafValues>
            -5.8577708899974823e-02 2.6500198245048523e-01</leafValues></_>
        <_>
          <internalNodes>
            0 -1 1606 -2.5272104889154434e-02</internalNodes>
          <leafValues>
            2.2178427875041962e-01 -6.1405740678310394e-02</leafValues></_>
        <_>
          <internalNodes>
            0 -1 1769 -6.2036165036261082e-03</internalNodes>
          <leafValues>
            -5.4562664031982422e-01 3.1341534107923508e-02</leafValues></_>
        <_>
          <internalNodes>
            0 -1 687 -1.4309224206954241e-03</internalNodes>
          <leafValues>
            1.2267546355724335e-01 -1.1788202822208405e-01</leafValues></_>
        <_>
          <internalNodes>
            0 -1 221 -5.6968601420521736e-03</internalNodes>
          <leafValues>
            -5.1969212293624878e-01 3.0799420550465584e-02</leafValues></_>
        <_>
          <internalNodes>
            0 -1 240 5.5947115470189601e-05</internalNodes>
          <leafValues>
            -1.3605232536792755e-01 1.0381206870079041e-01</leafValues></_>
        <_>
          <internalNodes>
            0 -1 343 -2.8703184798359871e-03</internalNodes>
          <leafValues>
            2.5639030337333679e-01 -5.6374762207269669e-02</leafValues></_>
        <_>
          <internalNodes>
            0 -1 163 1.0222108103334904e-03</internalNodes>
          <leafValues>
            -6.0518868267536163e-02 2.4923644959926605e-01</leafValues></_>
        <_>
          <internalNodes>
            0 -1 1062 -7.7977229375392199e-04</internalNodes>
          <leafValues>
            -2.2659218311309814e-01 5.7914391160011292e-02</leafValues></_>
        <_>
          <internalNodes>
            0 -1 1306 5.5969073437154293e-03</internalNodes>
          <leafValues>
            2.8087960556149483e-02 -4.3944391608238220e-01</leafValues></_>
        <_>
          <internalNodes>
            0 -1 461 1.3602986931800842e-02</internalNodes>
          <leafValues>
            -8.6577169597148895e-02 1.4471061527729034e-01</leafValues></_>
        <_>
          <internalNodes>
            0 -1 489 -1.9402194768190384e-02</internalNodes>
          <leafValues>
            2.2658708691596985e-01 -7.6697148382663727e-02</leafValues></_>
        <_>
          <internalNodes>
            0 -1 1020 -4.7650310443714261e-04</internalNodes>
          <leafValues>
            -2.3563367128372192e-01 5.2725218236446381e-02</leafValues></_>
        <_>
          <internalNodes>
            0 -1 851 -3.1638047657907009e-03</internalNodes>
          <leafValues>
            1.7117020487785339e-01 -7.9809740185737610e-02</leafValues></_>
        <_>
          <internalNodes>
            0 -1 1665 5.5212213192135096e-04</internalNodes>
          <leafValues>
            -6.5564908087253571e-02 1.9744826853275299e-01</leafValues></_>
        <_>
          <internalNodes>
            0 -1 914 1.9560400396585464e-03</internalNodes>
          <leafValues>
            -4.6373758465051651e-02 2.5614529848098755e-01</leafValues></_>
        <_>
          <internalNodes>
            0 -1 1397 -2.0281424745917320e-02</internalNodes>
          <leafValues>
            1.9580690562725067e-01 -6.3406817615032196e-02</leafValues></_>
        <_>
          <internalNodes>
            0 -1 106 8.9311515912413597e-03</internalNodes>
          <leafValues>
            3.9138291031122208e-02 -3.2225129008293152e-01</leafValues></_>
        <_>
          <internalNodes>
            0 -1 1712 -5.8539756573736668e-03</internalNodes>
          <leafValues>
            1.8590670824050903e-01 -6.5429307520389557e-02</leafValues></_>
        <_>
          <internalNodes>
            0 -1 1722 -3.8121789693832397e-02</internalNodes>
          <leafValues>
            -6.8977373838424683e-01 2.0608428865671158e-02</leafValues></_>
        <_>
          <internalNodes>
            0 -1 438 -1.0478762909770012e-02</internalNodes>
          <leafValues>
            1.8481303751468658e-01 -7.0267826318740845e-02</leafValues></_>
        <_>
          <internalNodes>
            0 -1 980 -2.7865509764524177e-05</internalNodes>
          <leafValues>
            1.1610168963670731e-01 -1.3569182157516479e-01</leafValues></_>
        <_>
          <internalNodes>
            0 -1 12 6.2224682420492172e-02</internalNodes>
          <leafValues>
            1.6334675252437592e-02 -7.4281215667724609e-01</leafValues></_>
        <_>
          <internalNodes>
            0 -1 1789 -4.6395426616072655e-03</internalNodes>
          <leafValues>
            -4.1228860616683960e-01 2.5549398735165596e-02</leafValues></_>
        <_>
          <internalNodes>
            0 -1 1830 -8.6417691782116890e-03</internalNodes>
          <leafValues>
            2.4444167315959930e-01 -5.9255622327327728e-02</leafValues></_>
        <_>
          <internalNodes>
            0 -1 1790 1.6267795115709305e-02</internalNodes>
          <leafValues>
            1.5559231862425804e-02 -8.4842699766159058e-01</leafValues></_>
        <_>
          <internalNodes>
            0 -1 632 -1.1639887094497681e-01</internalNodes>
          <leafValues>
            -7.0603382587432861e-01 1.2639973312616348e-02</leafValues></_>
        <_>
          <internalNodes>
            0 -1 1898 -4.1665136814117432e-03</internalNodes>
          <leafValues>
            1.9681821763515472e-01 -6.6838413476943970e-02</leafValues></_>
        <_>
          <internalNodes>
            0 -1 1774 -1.9714974332600832e-03</internalNodes>
          <leafValues>
            -4.0425914525985718e-01 3.1750049442052841e-02</leafValues></_>
        <_>
          <internalNodes>
            0 -1 436 -5.8689340949058533e-02</internalNodes>
          <leafValues>
            -7.6589399576187134e-01 1.2814625166356564e-02</leafValues></_>
        <_>
          <internalNodes>
            0 -1 1721 -2.1145589649677277e-02</internalNodes>
          <leafValues>
            2.3249839246273041e-01 -5.4191898554563522e-02</leafValues></_>
        <_>
          <internalNodes>
            0 -1 1718 -4.2906636372208595e-03</internalNodes>
          <leafValues>
            1.8549752235412598e-01 -6.8246446549892426e-02</leafValues></_>
        <_>
          <internalNodes>
            0 -1 1628 -5.9685076121240854e-04</internalNodes>
          <leafValues>
            -1.9832156598567963e-01 6.5386652946472168e-02</leafValues></_>
        <_>
          <internalNodes>
            0 -1 496 -2.9517615985241719e-05</internalNodes>
          <leafValues>
            1.0607601702213287e-01 -1.2420471757650375e-01</leafValues></_>
        <_>
          <internalNodes>
            0 -1 1269 -1.6867542581167072e-04</internalNodes>
          <leafValues>
            1.0092512518167496e-01 -1.1813829094171524e-01</leafValues></_>
        <_>
          <internalNodes>
            0 -1 1096 4.2847348377108574e-03</internalNodes>
          <leafValues>
            -6.4870811998844147e-02 1.9913844764232635e-01</leafValues></_>
        <_>
          <internalNodes>
            0 -1 1589 -2.7690446586348116e-05</internalNodes>
          <leafValues>
            1.2957860529422760e-01 -1.0634586960077286e-01</leafValues></_>
        <_>
          <internalNodes>
            0 -1 1927 6.3777249306440353e-04</internalNodes>
          <leafValues>
            6.0432769358158112e-02 -2.1200996637344360e-01</leafValues></_>
        <_>
          <internalNodes>
            0 -1 83 -7.5831897556781769e-03</internalNodes>
          <leafValues>
            1.6136479377746582e-01 -7.1891263127326965e-02</leafValues></_>
        <_>
          <internalNodes>
            0 -1 257 9.6064686775207520e-02</internalNodes>
          <leafValues>
            -5.8117941021919250e-02 2.1063956618309021e-01</leafValues></_>
        <_>
          <internalNodes>
            0 -1 910 -2.9812194406986237e-02</internalNodes>
          <leafValues>
            2.3631750047206879e-01 -5.5445015430450439e-02</leafValues></_>
        <_>
          <internalNodes>
            0 -1 636 -1.3058384880423546e-02</internalNodes>
          <leafValues>
            1.5423648059368134e-01 -7.5698845088481903e-02</leafValues></_>
        <_>
          <internalNodes>
            0 -1 1047 2.9648742638528347e-03</internalNodes>
          <leafValues>
            6.6366232931613922e-02 -1.9620966911315918e-01</leafValues></_>
        <_>
          <internalNodes>
            0 -1 1618 1.6992466989904642e-03</internalNodes>
          <leafValues>
            -7.6818019151687622e-02 1.9335764646530151e-01</leafValues></_>
        <_>
          <internalNodes>
            0 -1 1810 -2.7142239559907466e-05</internalNodes>
          <leafValues>
            1.1974672973155975e-01 -9.9861212074756622e-02</leafValues></_>
        <_>
          <internalNodes>
            0 -1 1758 -1.1093204375356436e-03</internalNodes>
          <leafValues>
            2.3040787875652313e-01 -6.1647914350032806e-02</leafValues></_>
        <_>
          <internalNodes>
            0 -1 1317 -3.4416098147630692e-02</internalNodes>
          <leafValues>
            3.2787701487541199e-01 -3.9405629038810730e-02</leafValues></_>
        <_>
          <internalNodes>
            0 -1 1600 2.3559932014904916e-04</internalNodes>
          <leafValues>
            7.0629142224788666e-02 -2.0278780162334442e-01</leafValues></_>
        <_>
          <internalNodes>
            0 -1 1324 -1.3227207586169243e-02</internalNodes>
          <leafValues>
            -8.6911946535110474e-01 1.2847896665334702e-02</leafValues></_>
        <_>
          <internalNodes>
            0 -1 1827 -2.8258778154850006e-02</internalNodes>
          <leafValues>
            -4.7243201732635498e-01 2.2362725809216499e-02</leafValues></_>
        <_>
          <internalNodes>
            0 -1 480 -3.9260964840650558e-03</internalNodes>
          <leafValues>
            1.6523188352584839e-01 -7.6332770287990570e-02</leafValues></_>
        <_>
          <internalNodes>
            0 -1 235 -2.8704489523079246e-05</internalNodes>
          <leafValues>
            1.0028786212205887e-01 -1.1961773037910461e-01</leafValues></_>
        <_>
          <internalNodes>
            0 -1 749 8.3624795079231262e-02</internalNodes>
          <leafValues>
            -4.8515584319829941e-02 2.6421657204627991e-01</leafValues></_>
        <_>
          <internalNodes>
            0 -1 1049 -1.3493487611413002e-02</internalNodes>
          <leafValues>
            -4.9536979198455811e-01 2.9254479333758354e-02</leafValues></_>
        <_>
          <internalNodes>
            0 -1 462 -7.5436267070472240e-03</internalNodes>
          <leafValues>
            1.5158295631408691e-01 -8.3192288875579834e-02</leafValues></_>
        <_>
          <internalNodes>
            0 -1 331 -7.1612987667322159e-03</internalNodes>
          <leafValues>
            1.5526606142520905e-01 -8.7449252605438232e-02</leafValues></_>
        <_>
          <internalNodes>
            0 -1 1069 -2.6338311727158725e-05</internalNodes>
          <leafValues>
            1.0835880786180496e-01 -1.4304974675178528e-01</leafValues></_>
        <_>
          <internalNodes>
            0 -1 1886 2.1103648468852043e-03</internalNodes>
          <leafValues>
            -8.2605175673961639e-02 1.6193398833274841e-01</leafValues></_>
        <_>
          <internalNodes>
            0 -1 2022 3.3446461893618107e-03</internalNodes>
          <leafValues>
            2.0383831113576889e-02 -5.8783423900604248e-01</leafValues></_>
        <_>
          <internalNodes>
            0 -1 1754 -3.1785893952473998e-05</internalNodes>
          <leafValues>
            9.6113324165344238e-02 -1.2486483901739120e-01</leafValues></_>
        <_>
          <internalNodes>
            0 -1 482 -2.7421196922659874e-02</internalNodes>
          <leafValues>
            -7.3549389839172363e-01 1.5269845724105835e-02</leafValues></_>
        <_>
          <internalNodes>
            0 -1 1402 -9.8279695957899094e-03</internalNodes>
          <leafValues>
            3.9691528677940369e-01 -3.2090622931718826e-02</leafValues></_>
        <_>
          <internalNodes>
            0 -1 1198 2.1736056078225374e-03</internalNodes>
          <leafValues>
            3.9102464914321899e-02 -3.1158861517906189e-01</leafValues></_>
        <_>
          <internalNodes>
            0 -1 75 2.2097609937191010e-02</internalNodes>
          <leafValues>
            -4.3747778981924057e-02 2.6528874039649963e-01</leafValues></_>
        <_>
          <internalNodes>
            0 -1 385 -1.4188560657203197e-02</internalNodes>
          <leafValues>
            1.5220844745635986e-01 -9.0967506170272827e-02</leafValues></_>
        <_>
          <internalNodes>
            0 -1 337 -2.0645602489821613e-04</internalNodes>
          <leafValues>
            1.3381317257881165e-01 -9.5519617199897766e-02</leafValues></_>
        <_>
          <internalNodes>
